,0,1,2,3,4,5,6,7,8,9,10,11,12,13,14,15,16,17,18,19,20,21,22,23,24,25,26,27,28,29,30,31,32,33,34,35,36,37,38,39,40,41,42,43,44,45,46,47,48,49,50,51,52,53,54,55,56,57,58,59,60,61,62,63,64,65,66,67,68,69,70,71,72,73,74,75,76,77,78,79,80,81,82,83,84,85,86,87,88,89,90,91,92,93,94,95,96,97,98,99,100,101,102,103,104,105,106,107,108,109,110,111,112,113,114,115,116,117,118,119,120,121,122,123,124,125,126,127,128,129,130,131,132,133,134,135,136,137,138,139,140,141,142,143,144,145,146,147,148,149,150,151,152,153,154,155,156,157,158,159,160,161,162,163,164,165,166,167,168,169,170,171,172,173,174,175,176,177,178,179,180,181,182,183,184,185,186,187,188,189,190,191,192,193,194,195,196,197,198,199,200,201,202,203,204,205,206,207,208,209,210,211,212,213,214,215,216,217,218,219,220,221,222,223,224,225,226,227,228,229,230,231,232,233,234,235,236,237,238,239,240,241,242,243,244,245,246,247,248,249,250,251,252,253,254,255,256,257,258,259,260,261,262,263,264,265,266,267,268,269,270,271,272,273,274,275,276,277,278,279,280,281,282,283,284,285,286,287,288,289,290,291,292,293,294,295,296,297,298,299,300,301,302,303,304,305,306,307,308,309,310,311,312,313,314,315,316,317,318,319,320,321,322,323,324,325,326,327,328,329,330,331,332,333,334,335,336,337,338,339,340,341,342,343,344,345,346,347,348,349,350,351,352,353,354,355,356,357,358,359,360,361,362,363,364,365,366,367,368,369,370,371,372,373,374,375,376,377,378,379,380,381,382,383,384,385,386,387,388,389,390,391,392,393,394,395,396,397,398,399,400,401,402,403,404,405,406,407,408,409,410,411,412,413,414,415,416,417,418,419,420,421,422,423,424,425,426,427,428,429,430,431,432,433,434,435,436,437,438,439,440,441,442,443,444,445,446,447,448,449,450,451,452,453,454,455,456,457,458,459,460,461,462,463,464,465,466,467,468,469,470,471,472,473,474,475,476,477,478,479,480,481,482,483,484,485,486,487,488,489,490,491,492,493,494,495,496,497,498,499,500,501,502,503,504,505,506,507,508,509,510,511,512,513,514,515,516,517,518,519,520,521,522,523,524,525,526,527,528,529,530,531,532,533,534,535,536,537,538,539,540,541,542,543,544,545,546,547,548,549,550,551,552,553,554,555,556,557,558,559,560,561,562,563,564,565,566,567,568,569,570,571,572,573,574,575,576,577,578,579,580,581,582,583,584,585,586,587,588,589,590,591,592,593,594,595,596,597,598,599,600,601,602,603,604,605,606,607,608,609,610,611,612,613,614,615,616,617,618,619,620,621,622,623,624,625,626,627,628,629,630,631,632,633,634,635,636,637,638,639,640,641,642,643,644,645,646,647,648,649,650,651,652,653,654,655,656,657,658,659,660,661,662,663,664,665,666,667,668,669,670,671,672,673,674,675,676,677,678,679,680,681,682,683,684,685,686,687,688,689,690,691,692,693,694,695,696,697,698,699,700,701,702,703,704,705,706,707,708,709,710,711,712,713,714,715,716,717,718,719,720,721,722,723,724,725,726,727,728,729,730,731,732,733,734,735,736,737,738,739,740,741,742,743,744,745,746,747,748,749,750,751,752,753,754,755,756,757,758,759,760,761,762,763,764,765,766,767,768,769,770,771,772,773,774,775,776,777,778,779,780,781,782,783
0,-0.027836666615383497,-0.06042075637567694,-0.023501494029769268,-0.035151546831892526,-0.08087491964747004,-0.02148471011403245,-0.05182570625088822,-0.10518733540069759,-0.02825181282681908,-0.01263887526827693,-0.08248433074003654,-0.057630059264312174,-0.0701411193333213,-0.052865491469897566,-0.05796576176690945,0.016478074587493792,-0.0014326267149308695,-0.08152154580377811,-0.0911181933423889,-0.0981157728395319,-0.0555520239945642,0.01447853030817906,0.01219244001787603,-0.011555814122671888,-0.003974234148779053,-0.0246792415701629,-0.019462500415374735,-0.03512969201898386,0.0233087764779792,-0.009894361643172945,0.012089037455667645,-0.02391297027607277,-0.005936917181507859,-0.049225092396845735,0.018883400564956455,-0.005475973155522397,-0.13137957268172765,-0.06930807323482793,-0.1384242040225171,-0.008524259676486205,-0.022230786335772076,-0.060426874830265945,0.014074495063423082,-0.028033491310891688,-0.03147308924048093,-0.08644322840772578,-0.1337189789439201,-0.029842072157872684,0.0210738456247836,0.041084003759134735,0.03778777247014739,0.010867966534862985,-0.05914830589253809,-0.027357437658673937,-0.0629012640731677,0.03170918699953617,0.008574464446916754,-0.02121377498640692,-0.10669181107363922,0.037569501619891706,-0.04306926978242837,0.034214639485143576,-0.006522615239839941,-0.020336940532161223,-0.07532549162956748,-0.08024755473786191,-0.12191750160529985,-0.06383947424520271,-0.0914287922460598,-0.02611027744795708,-0.1191567531506499,-0.10731911082137036,-0.15874783980849605,-0.17539572791066058,-0.12754630236198838,0.07568166221908573,0.029333224431279652,0.0364819459006288,0.001034620159060533,-0.0243667032486732,-0.012647880119511385,-0.02361921493350101,0.010165845865644143,-0.03823028631402301,-0.07456207469447258,-0.030246072587761817,0.005472223932991214,-0.015715497497986584,-0.023431891095615935,0.023321326340175412,-0.05654196206486106,-0.06480281914846273,-0.04750992294059538,-0.13711688074764627,-0.11823498817314224,-0.33990029177887116,-0.18624350627144817,-0.150893932104324,-0.2647641593706096,-0.32986923057783957,-0.2660166334152427,-0.10675218415369979,-0.05908069362853152,0.08564794316145186,0.15810175902587548,-0.002195844682422713,0.047993991368070144,-0.03175732440580776,0.06809884249613933,-0.050629066138045194,-0.013296675987007036,-0.03301466441847241,0.06625124366267401,-0.022185195725088463,-0.11149091078843403,-0.028114191255376612,-0.03729179004507225,-0.05101269718433394,-0.04780139708238795,-0.022651870536417505,-0.13220076138794087,-0.1767178521703123,-0.11655331454829501,-0.19703705699487223,-0.1874494658064147,0.0019478653274727737,-0.10716343557323303,-0.11512806044722927,-0.19959560623029984,0.00033205486832101625,-0.07398619750079419,-0.08641565633979004,-0.09928951003632644,-0.08973412181452545,-0.05407235033423107,0.13314030852105663,-0.015070601089239695,-0.015644506667478374,-0.040238935605179715,0.04158778266693441,-0.06802061381779684,-0.022975667920682886,-0.008676868274197735,-0.026331514591147173,-0.00579902966790091,-0.004379807617296987,-0.07160857362211634,-0.15908465344044748,-0.25859570728631553,-0.24881219256404555,-0.23636311347875633,-0.27740084764407774,-0.20556175123560347,-0.18195546416438396,-0.37502631788278556,0.06175499143969819,-0.2758312716245683,-0.2441593481071987,-0.2976568195518222,-0.45506616672739864,-0.6535923496470019,-0.7333461586320512,-0.25994988201339714,0.09710805832301103,0.01806851266167462,-0.08965654981777331,-0.06936096849842951,-0.040522312873209204,-0.01356232576184685,-0.10310467330955395,-0.01590376084665844,-0.06204857861653171,-0.05069800177058333,-0.07142808444253708,-0.15665545644829973,-0.36388415487263337,-0.5187561206990552,-0.5752031824619318,-0.43851454957374325,-0.4547562324385424,-0.20915073269478246,-0.45195277778261306,-0.09509736941277618,-0.05279629742821663,0.28909125451222484,0.04545024160722527,0.08070562391224236,-0.27895279372628257,-0.4008013708373116,-0.5016320952587479,-0.1223616450824044,0.13162927191214696,0.02551070437765835,-0.05360139728390462,-0.006725134903966891,0.03026545780950288,-0.06534192144781464,-0.008271207168460108,-0.03284527706728568,-0.02936526466642807,-0.16601345370317142,-0.14282588985918104,-0.22437705274334735,-0.46067199384323426,-0.536962136661104,-0.7425268456518093,-0.6020103197278542,-0.3400241658245324,0.007336106808451752,0.08591159990821282,0.26350931171378805,-0.13123528026265546,0.2746707122305024,0.312240683504994,0.029508151976227276,-0.22771433859596146,-0.08999605914262356,-0.2417379602489441,0.09624731115863974,0.06874374523551094,0.0006810430277089459,-0.05310159023995844,-0.04529399906267125,-0.03408282382811327,-0.02785182000408731,-0.08333937971889228,-0.026690418103334234,-0.10615766195703315,-0.154943947365916,-0.18642671724093182,-0.28754642932742874,-0.44276308458563135,-0.4993952308689602,-0.6263807944845982,-0.46002237172296684,-0.15259442601605125,-0.08599227202464933,0.176094624717679,0.27289132678287226,0.001480680330127076,-0.07080908058181828,0.03174914798216597,-0.3630442301846954,-0.12050466457663167,-0.14377836921961437,-0.03665351173619579,0.10617627697578541,0.05111241123191857,-0.03388152257892521,-0.06258463585693631,0.0031049383367728815,-0.06100616056877867,-0.019438343482926678,-0.03399608537954755,-0.05890818055574719,-0.01824961346766749,-0.1877676323043318,-0.24673385920693827,-0.32954378125263023,-0.4987632765757462,-0.42398125735983305,-0.40761264879696485,-0.2586204131100495,-0.007728004852062981,-0.21439771050155457,0.11002024838725499,0.6423899455195997,0.20181644801115908,-0.23546903209674686,-0.7873933609187405,-0.30826972979239187,-0.00962954255337539,-0.14819620426737518,-0.24163039812143813,-0.026755396589165186,-0.1679686213158269,-0.1317113287679553,-0.08495409760171148,-0.03248911879219279,-0.04698676445140365,-0.031015926094354312,-0.04655695278913991,-0.08940651304968222,-0.15679067239274888,-0.18483059487092618,-0.2853071344669632,-0.3891680493175702,-0.3908085182045794,-0.2765512805054302,-0.2908410825823192,-0.33669329205145027,-0.2386744055375409,-0.0007709433787124755,0.5663177864521514,0.8001980589861366,0.442993056834637,-0.11117477939243328,-0.6311240789828038,-0.49094347696672413,-0.3248172248516757,-0.6043343579597376,-0.5272564791675358,-0.32307210452772506,-0.2844885375385022,-0.1961403316638296,-0.17699387132604003,-0.10051997987329099,-0.08098866415067074,-0.04025856694375261,-0.08933141751244786,-0.10122948598670284,-0.14454970690793123,-0.24933762632450862,-0.26501481400627935,-0.3795709268623358,-0.33602446513154133,0.05442578702119629,-0.12390514432114207,0.03863291385724756,0.10380708389694553,0.49522216943019814,0.8290152407038169,0.5088235996204383,0.34024429246883664,0.003309400703946344,-0.32580395838957094,-0.5776767951784566,-0.606208959431165,-0.6593573075013535,-0.4456539156814761,-0.4070190571944768,-0.4279482308636485,-0.333079413362686,-0.2915339892059966,-0.15339289708243328,-0.0006052867850409903,-0.02010451504548856,-0.03408420077340005,-0.015424149355673742,-0.09514824792058223,-0.19071059486393746,-0.26912354404967326,-0.3996850168238911,-0.2122702231147608,-0.20626789201554663,-0.0576049945178564,0.18719480571042055,0.43034924800963914,0.7089243476544654,0.9207319609300236,0.5351311693865394,0.2142996770280232,0.3231857571973921,0.16167518717265952,-0.1227580004650027,-0.6071254989384784,-0.46599921393902044,-0.23994699117262597,-0.29652998018568194,-0.3601965900372746,-0.19545131778611655,-0.1670231764777115,-0.05823830606217347,-0.0320100714945999,-0.04532179080634278,-0.052957406715762365,-0.014762148235466963,-0.07112031750202467,-0.14350833295101928,-0.2149495512757077,-0.2775680489295069,-0.12171829072844605,-0.24438095662140602,-0.013081209901059508,0.4866458758091573,0.1306625653523947,0.34153956015253367,0.2989968139914392,0.3729805246031378,0.3374699767979697,0.6366430538419126,0.4252768385918196,0.16993592622145837,-0.2920254252899177,-0.04907141879055073,-0.09956420374059365,-0.3821726713733565,-0.3057304934855609,-0.28018683836278535,-0.2514741093751805,-0.10196275711309051,-0.0186247373416112,-0.10634154373756954,-0.03305387196798673,-0.02931662725340648,-0.058857839003840014,-0.10606940277737603,-0.24239076944552895,-0.3089652867082281,-0.15058235160167738,-0.2386362191318436,-0.22142246809935826,0.07584616062691003,-0.08794630590768795,0.025240727906914544,0.19373826018628018,0.1403886549096295,0.26066786596089503,0.6093427562299149,0.4048938775027395,0.3862279459963797,-0.26156472745027104,-0.21088281984135882,-0.22447702457396118,-0.30660827029871374,-0.3164723779922639,-0.1663714652160014,-0.07148422771842196,-0.16473162697202656,-0.04404108103282834,-0.008497686742876006,-0.047979136794777444,-0.027917419226619864,-0.05619395782152891,-0.008982072949363205,-0.11355641088874645,-0.28354706218219905,-0.275397258250353,-0.21136731047200874,-0.2354448643019556,-0.04111675949600159,0.10528755762893172,0.12789217520653587,0.08073006120040482,0.05853359423906635,-0.061267628391764535,0.6495979880648515,0.6624813769321684,0.0433585227251263,-0.5381226234692664,-0.43399880963801374,-0.2309570054730946,-0.2219712820929522,-0.13545285556658976,-0.14837592318710685,-0.12274941239190876,-0.05890409380003066,-0.07396151297267375,-0.05699154922459926,-0.0985157910676413,-0.08571854003856033,-0.06676557506719862,-0.06052512883405039,-0.02620947845369808,-0.3106420091295049,-0.14333678035815225,-0.041103252909803004,-0.27835909273300485,-0.1460518625753494,0.14925010785404158,0.10681656807212626,0.030061235522763022,-0.03228032148105494,0.09804441915856255,0.5009132265406417,-0.0008785099352697307,-0.31368670076448696,-0.6627235605277668,-0.520868720530524,-0.2452396038556052,-0.20024249133007793,-0.22958787769707525,-0.1628489811456442,-0.18469010328814814,-0.13036708484004642,-0.02284807288212314,-0.06142967686759113,-0.0067465078913874245,-0.02713259249968581,-0.09316552605291108,-0.09313905689292512,0.08064158492537114,-0.18545191462684427,-0.03485818214697133,0.03507593022107029,0.08596342814950726,0.078888882905979,-0.1637357420809304,-0.3240920253272306,0.025733986679300908,0.33690026128895856,0.21163431741651276,0.10870243559609805,-0.3989374790003503,-0.6397587664129913,-0.6406192108294082,-0.5166447707895737,-0.3659316407093636,-0.3381158430330134,-0.3143700361602014,-0.2428815485292614,-0.06132950864167025,0.050827813332517825,-0.016761510838068833,-0.03334950686451725,-0.08164116879784486,-0.046893092044559395,-0.08011808964189795,-0.054645477753249135,-0.007270730918049295,-0.09447404273270643,-0.22845963844543413,-0.11710729227098167,0.24419306384158976,0.20130409576982183,-0.17967361669863682,-0.11573510575926824,0.12477342221180399,0.3971686959177031,-0.047013452952333376,-0.2601768973526862,-0.5740905128920344,-0.7125696391749561,-0.642449460678124,-0.5295642309333932,-0.3830998580356616,-0.5077274006708827,-0.26622772259617117,-0.20499418012259907,-0.02830638975820234,-0.05442377666254312,-0.09578510715927308,-0.03416767138404826,-0.07441547145056306,-0.06666705352585789,-0.01794287245569574,-0.007668717699095014,-0.07063353513890297,-0.019626612357236017,-0.44036413625509735,-0.46727210161484334,-0.44360540504013335,-0.4311778440244831,-0.4414111885150621,-0.2528235825464043,0.16706797309192895,0.3317977144284177,-0.04343907968107834,-0.2551442137457436,-0.6717805091107232,-0.4834245571322292,-0.33010772245467895,-0.26826716594000494,-0.38801655311582145,-0.38389996670558607,-0.24748504984250813,-0.0662551460726209,-0.002420106299300603,-0.015966083397899462,-0.053252817788923386,-0.10651173061744248,-0.04608209462811426,-0.10286546283378716,-0.054278210382247095,-0.08865751252201087,-0.14595583390533398,-0.19657140026535475,-0.5268564178014513,-0.4454160371443496,-0.669169173401937,-0.8070569486574337,-0.529014189158869,-0.42224434770998437,-0.09351129942153319,0.26970028651926475,-0.1477243030830029,-0.2594310552818438,-0.5083633968199128,-0.2532580768271459,-0.11697732324903312,-0.19826576660434278,-0.32847666185973445,-0.31093563540686286,-0.16633737739501245,-0.055280744071361396,-0.05852650324182814,-0.00859501688144082,-0.024266554100502578,-0.013592698062627724,-0.021827010348354572,-0.0845182612461544,-0.11615923581953835,-0.030228896900458997,-0.2305407092060501,-0.4237175684581374,-0.44457160202381624,-0.39552520948849873,-0.39470520176593626,-0.20882107820254733,-0.34572727341608406,-0.12806337117675118,-0.3325700876654725,-0.16658904451881693,-0.08128521557248576,-0.2341466818621778,-0.2090710519994318,0.20953254764300408,-0.17715753716238938,-0.1197790839672997,-0.20989448873277605,-0.2702111474946959,-0.1009283680776178,0.04158359365294386,0.005436671361876088,0.02091561481197417,0.00759438169159038,0.026100850971254672,0.03214704314941545,-0.020046581248824462,-0.04885535030263027,-0.096207263145039,-0.2171735229085623,-0.4288116510522186,-0.5005912217151365,-0.4531672473773681,-0.370113950566723,-0.24753736194348447,-0.412972145914404,-0.2687200610070892,-0.26879904970330015,-0.4913940390112983,-0.45572391103602944,-0.12900415439217106,0.16749420857137737,0.32925369691663775,0.01598199662594978,-0.04365003468020591,0.008911541541118374,-0.12439304401924958,-0.0057235788966625255,-0.04740744835005751,0.02847267362882953,0.013925163205454333,-0.056390471015110716,-0.0009366818426848886,-0.05293446468085477,0.05963701283874298,-0.07618194149473252,-0.08928309897622085,-0.15151822693325845,-0.17176597329062498,-0.2897297180368084,-0.3008668731391773,-0.309365843139567,-0.014970768734367835,-0.21568547721278092,-0.13604392217369615,-0.28992727610612273,-0.5855406631727553,-0.5207491579517416,-0.25858659134975387,0.3308378823281324,0.20143283427509168,-0.0617403984923474,-0.0024511687658156653,-0.061065270331498896,0.0009133577346148941,0.03427928102486316,-0.03149385253197428,0.038499679332222814,0.025418476142916074,0.006993563696376857,0.006326190882663402,0.002523342182518816,-0.043334919667650525,-0.015303845513697633,0.03521805933495638,0.0027772144005134406,-0.02367033089229044,0.047091957946184745,-0.11296299924161216,-0.12987252098821575,0.15164835706487698,-0.1270278464861534,-0.20615513228197585,-0.4033450858018691,-0.4296584624247972,-0.5037262831581534,-0.20677428786144453,0.14973981558413432,0.13368005523776053,0.10836774135372983,0.14715665033762154,0.0974368421790324,0.037157491776212075,0.059314151789899676,-0.03946643059958325,-0.011296894662121965,0.029933421293482584,-0.02039649150549019,-0.055941695451502245,-0.013438052091656189,-0.027943611827048517,-0.043519511793965245,0.005473383488827415,0.07744599583764296,-0.028485905795208294,-0.034746718379834965,0.05932465542756003,0.028754146647386927,0.11809689759235488,0.14208935382426702,-0.0385216782946118,0.0027630156756766056,-0.03485568213167576,-0.1754867696123354,-0.053522055941807395,0.1274008237515349,0.20986183214834173,0.031914570625748054,0.1700983305411985,0.08445738009267831,-0.011214095654141474,-0.012580312321978246,-0.05993870368151447,-0.049259715332095916,-0.00238848556204364,-0.02416759716951398,-0.022477194941889277,-0.02584712898767899,-0.057990441371622486,-0.024640729497739697,-0.003922248940636924,0.040788727775401816,-0.009392671998002934,0.007028462794552945,-0.004571760007463657,-0.05148845802594901,-0.06159658818872222,-0.04372082085703261,-0.09713890623826014,-0.0111822142339903,0.10658068030580381,0.1518870574868981,0.14987346163036028,0.18694905651499472,0.10663182565138611,0.016391452516640384,-0.016689446621704893,-0.05907537241145914,-0.011854500891598755,-0.0733964293407671,-0.04007647698066085,-0.08046034571465516,-0.027692527232935985,-0.04404812195243933,0.04901855719199163,-0.06169277914343351,0.01385447569876357,-0.03692562930919796,-0.06815654094063636,-0.014061751806861523,0.011773613548196829,0.017472509347810444,-0.04192499378811665,-0.09384182464285491,-0.07826215710719359,-0.013751868158587142,0.0014489240316135454,-0.04588573306490308,0.029134310934300238,-0.0009393914839450662,-0.004856506609317392,-0.04191511712561028,-0.014256897174850186,-0.003914326871986149,-0.017687153795312452,0.023344347267174163,0.022883378046203835,-0.01473140930882397,-0.022666049669357792,0.03207033641094987,-0.025473592576351456,0.030549369884597326
1,0.0027235612434646996,0.0654095419284759,-0.01938176553761228,-0.06255440791576788,0.04292107093692481,-0.027982473852627678,0.023946049920835863,-0.0356969020396864,-0.022672021265021835,-0.00038815661040279224,0.006365815146827812,-0.0725277990098274,0.004418227406801689,0.035957259398701376,-0.006058169291124058,-0.02647836555163825,0.02577631016379559,0.003855874216318803,0.04793001737031725,0.003319616917031632,0.019376187091815274,0.028343396357443627,-0.015367285358195934,0.011102990647341165,0.013744525795673763,0.025537167908239435,-0.056023786061994145,-0.034554014746925044,-0.009522649028953188,0.056141002375833686,0.006223753478787138,-0.08817972691038195,-0.02905826068947009,-0.02041211373677663,-0.0356427351662532,0.03182457494466061,-0.00545118427531197,-0.0007173775744276237,0.0027667289014254356,-0.012024479313092135,-0.05088740487369895,-0.03856557428593507,-0.04837538345452,0.011651544365781565,-0.0367417659286808,0.056460367861071475,-0.037785852461178625,0.004791178307117745,0.05926630029815769,0.05381010487551791,-0.044733675991238286,-0.04018915275518243,0.0744302081712969,0.025531282351942245,0.013808382543272739,-0.006343290303992709,0.007735127189895599,-0.05626926042166014,-0.037406399985070574,0.03159190050902926,-0.002738796360272692,0.04194078853825251,0.016028793285462275,-0.010107068534520636,-0.053164932490143396,-0.0022414595411148195,0.03539000599306323,-0.004937334101502911,-0.0011264446401629288,-0.053665180393563584,-0.03664427143524714,-0.015574768090222475,0.028250605493855253,-0.0016864966394209706,-0.011077352835291788,0.040691253247518704,-0.01993676092943811,-0.053797791188397316,-0.03923474868022912,-0.013310510416381094,0.043512716559976364,0.05055877765470234,0.03362417929496692,0.007336471313551132,-0.00939203741377537,-0.031323099070767677,-0.06071090612033852,-0.05734983274282847,-0.07459515402459475,-0.026198387147419042,0.021516512801482625,0.04771498261732437,-6.862872571185261e-05,0.041680045601415604,-0.07146055262429582,-0.040422457208370205,-0.0431110631921663,-0.0592259659696085,-0.04740582459617039,-0.05392838678367251,-0.0944374780999889,0.01623875897263995,0.01825483365258438,0.038180458163784216,-0.010564752406292961,0.028157117461882732,0.056650853836345244,-0.011390859539697136,-0.0022260021687493447,-0.04333466208969632,0.06105866688797808,-0.00156856677263265,0.01567468804345802,-0.07767743015707587,-0.007837003770918376,-0.06870057019047625,0.025366340972400345,0.0153893224320107,0.07729613530607804,0.008081006755990975,-0.02100488290529744,-0.04635777166021472,-0.049495630139888364,-0.11524317387587935,-0.1629264374225489,-0.13642388044945353,-0.0757860489182863,-0.12614190074184847,-0.12666002798574774,-0.02982462624569255,0.050108372530892585,0.06162007725655588,-0.029159732535808086,-0.04438961082753425,0.005324848490342217,0.043197403816699724,0.042811610600984915,0.0494037395426176,0.058368201441969365,-0.006077625562409765,-0.08221517192208397,-0.02825051208921244,-0.017146620279904302,-0.0781704041022039,0.02405742278603343,-0.0713091314975088,0.009499527533349886,-0.10075184283751751,-0.035957688302952026,-0.0593716499765886,-0.11597432264846133,-0.11270510874311933,-0.21179282835523142,-0.17993760200387324,-0.18387092860371215,-0.1780518616416103,-0.17055281559994118,-0.09683621941622972,-0.13036318462220403,-0.07283786603170535,-0.003887782176655985,0.03145688172620191,0.11655757903812938,0.1447230815182008,0.02932470121558971,0.002204772555609796,0.054206587010929626,-0.037536058665855035,0.051677934365938025,-0.027137123297960142,-1.6293666567275823e-05,-0.025989317297492258,0.02512993243165653,-0.0819910745898498,-0.03195261339140877,0.005557084251425893,-0.09668853706703454,-0.07286878839975337,-0.1148478998946794,-0.16705097810960887,-0.19873693427222114,-0.23737673319938515,-0.27897725315612376,-0.17955271000516004,-0.2640788947331265,-0.1614495121368139,-0.11904650164756629,-0.013848011525901717,-0.022369722031975094,0.022436063433923705,0.08429139083929851,0.1060828286288516,0.05283504479553239,-0.015465066612931516,-0.015144810800584699,-0.04483695923889141,-0.001101666435199348,-0.024217887021967595,-0.02791216498776145,0.007210906318178112,-0.011221750903366157,-0.02425205928931891,-0.030495789381444975,-0.02294120982720827,0.005973548327903927,-0.035128228080571505,-0.043093959553483815,-0.08277283795099759,-0.22747987389702937,-0.1695777685869883,-0.30816565650664157,-0.31080155861284214,-0.26746115212301186,-0.19111961684097614,-0.13457937532046058,-0.1237994356958043,-0.10162676434819849,-0.028872822561721034,0.012188136893777119,0.13589973222376403,0.030688996377253842,0.009670682206764888,0.07683717978164213,0.05207585100349911,0.0062266350780744014,-0.05712499359601778,-0.017732728395253708,-0.013228777391678744,-0.0540548891558037,-0.0431517279721707,0.013914280478120577,0.04162474887375527,0.07480163304998684,-0.027019255021375005,-0.03769059729389965,-0.10448187778922417,-0.16995585044354447,-0.18389261802782852,-0.3102792871430333,-0.206936229554802,-0.15405542258152588,-0.11213356736219691,-0.12674605935085373,-0.176983894540931,-0.04819905603267671,-0.06423422087786897,0.04914060639859916,0.08287080705783038,0.06433694362326133,0.030362722538065184,-0.06864467493889531,0.01365580910474647,-0.03458657811813532,-0.0001807514669154301,-0.018511639808436297,0.02974545673840269,-0.03625668910222625,-0.01551486994138617,0.008650999485227217,0.03222784737946314,0.0300843346550939,-0.07054527774200499,-0.034693155006168756,-0.06605061885107588,-0.06950706927065803,-0.12817757813352934,-0.2254695194811818,-0.14020208152824498,-0.1319958613957714,-0.08708664235469837,-0.08630521635213706,-0.06744427479126387,0.03253702467100921,0.025931505914186886,0.0003163546072644995,0.03343235569360146,-0.008023171902219123,-0.02221087860742614,-0.02973132250503573,-0.033609644353544986,-0.001275929182248893,0.04861924050710726,0.018740384502023314,0.023294536957307866,-0.005084247534973127,0.006342316930220993,-0.0006280276921468327,-0.08019789713651822,-0.041451488312431777,-0.0891592105583378,-0.06016996382121557,-0.055032068693486966,-0.08543110240050676,-0.11917273743913227,-0.18615232115554337,-0.08715828724592051,-0.10117401220066814,-0.07506928127520471,0.00483918483139842,0.0015456220707150236,-0.008665022082398234,-0.01607110265030967,-0.0009712004199936444,0.06096395558162847,0.0422374161947277,0.02661773613458871,-0.005598064248229266,0.0746410559279069,0.05809209609117313,0.03910912760393568,-0.06312474365790337,0.026831175605633455,0.06401403238871989,0.015858022059766896,0.07519146341522014,-0.02787678227525422,0.012468007095586285,0.047429543200785136,-0.03654703679496608,0.002655820880115393,0.028701469595262916,-0.03213423804939922,-0.09373969116836142,-0.03979261455087942,0.02305035344335921,-0.07680389025807549,-0.09618512714736976,-0.1033550035350641,-0.11002012148444684,-0.013595900798274317,-0.00925659819751405,-0.038733636498262336,-0.028062123895729204,0.05312472672458181,0.004360718649312881,-0.0180548838101792,0.0008787036632520387,0.03239672644318363,0.006503009171845754,-0.02786078481822404,0.004083047745052794,0.07366316339302538,-0.02688006300853721,0.0195365943027391,0.06062281500695938,-0.011913340671556109,0.014671537670057081,0.0928247869031936,0.0027770052766830713,-0.07626597443031458,-0.20111413089448565,-0.11393266942119455,-0.12220493785654452,-0.13365138389651132,-0.09480008187861004,-0.10606380681681155,-0.09607302966440578,-0.004757418340814881,-0.05743943927096376,-0.05775194018171141,0.02936381222995487,-0.030622570657131937,-0.007538043540881888,0.010022020336597957,-0.04655447713074077,0.06326281301963275,0.02359514797720658,0.035174750451903256,0.006349650770955403,0.05912627137828917,0.0011698391715193482,0.05035656349833193,0.05444342139694666,0.010420120956733173,-0.01315014749091241,0.028437064836551947,-0.03702322622157165,-0.08121902027853348,-0.1347727915187095,-0.11123917106962948,-0.22126286348923616,-0.14484940412052857,-0.15584635169900318,-0.05286863739391124,-0.07174679981592856,0.046045422353549526,0.031220006868888737,0.01095700211582765,0.0010753815627087225,-0.027817906485612685,-0.00301669384629124,-0.02613342685824233,0.0008479651896186179,-0.019267190150337194,-0.08624167147158143,0.03122275267305355,-0.017329917324175312,0.026117902016574757,0.013561679500627324,0.06537045448891597,-0.09352223540106594,-0.07386456038135716,-0.04955590467009854,-0.13199178293949554,-0.15256171503721006,-0.19654979942863052,-0.29567524543205564,-0.15707791959029532,-0.15358704246046487,-0.10980333571895025,-0.16014209239045676,-0.029840412155621894,-0.03624786450442105,-0.02669637253499332,-0.0007419213667567238,-0.07133445536686302,-0.006566900546608412,-0.04093701826221622,0.021548134148206034,0.04754472272200405,-0.02294989113900111,-0.003772641200660485,-0.04526058561160166,0.013381640876742738,0.026403912729736103,-0.0579522221044912,0.03546432060896491,-0.08699478030717246,-0.05076338163661788,-0.12452952871268323,-0.21598502048577242,-0.16010064895179893,-0.2209077515534176,-0.26007253727020724,-0.12079410645789031,-0.11236861985331559,-0.19627023798103468,-0.13972071266560387,-0.11022719732540964,-0.14535529512678605,-0.009739985868108574,0.00013021758688174577,-0.009484015089387975,0.044663302840853965,-0.02865281614428258,-0.023438683201304836,-0.043654727408141185,-0.024478376431236914,-0.020812796759083152,-0.05124537292532553,0.027603779517203757,-0.0257850909276899,-0.022875494375784157,-0.05051882866015343,-0.046971671024759236,-0.02675201095523736,-0.07853339665449569,-0.15234497990679066,-0.16375576639289094,-0.2639333841975407,-0.2945401164435248,-0.2604396637579155,-0.2249671318339541,-0.1814659181211551,-0.21603430451577002,-0.19882042431553063,-0.11434818812141694,-0.1552078728454848,-0.17980893505277465,-0.0647135713243702,-0.04988426687316091,-0.08588874065594253,0.025116525060781162,-0.07256993441052406,-0.020859461107237656,0.05190495557160049,-0.02930794883629156,-0.020762590575517072,-0.049183179661625505,0.0306618382226505,-0.04568840568680082,-0.062427353097418335,-0.09965166585757702,-0.08851410376747,-0.12716673381077578,-0.10615149191564152,-0.10882000155362374,-0.13316383655443462,-0.17598994653788566,-0.013076303881910415,-0.1212263800491566,-0.1606724807106995,-0.2664699270901327,-0.16684792061961834,-0.058007446689323935,-0.1559146612211443,-0.1003193721902195,-0.1064532979355538,-0.06596610369664768,-0.13247062072719015,-0.1122064469835632,-0.03485464312294906,-0.04836349630855285,0.03234344496122246,0.05889956383221907,0.010296562600332298,0.03189989944151683,-0.03341002731914607,-0.0034939370185907382,-0.08743579139153226,-0.07416239258136208,-0.038585707398522996,-0.05590570806195412,0.00045169781091287047,-0.04756309745679875,-0.09937082153136294,-0.07738433817222856,-0.061760320053068224,-0.10871948799452635,-0.21810568080691542,-0.23104144508699154,-0.1692853194295616,-0.09497977141966715,-0.09244531983963397,-0.13591277769697802,-0.07292841435404865,-0.1153208342363354,-0.11446844177882784,-0.022463413703952023,-0.011635891948863629,0.040800780097926356,0.008297162782507646,-0.0031711748469650473,-0.03392754476205434,-0.0018503299578233802,-0.03634952888314538,-0.04215930579885888,-0.10361979113658845,-0.11237820953735289,-0.04227085040314561,-0.03159051955494172,-0.05015988259180163,-0.11866740221032053,-0.14405413241942502,-0.0964481381767662,-0.07432793019559265,-0.15303000898596833,-0.18152442767278396,-0.17708635456581578,-0.062465971191875976,-0.09718001834185988,-0.05060406960302584,-0.09336551417167437,-0.13991251647018021,-0.13340333835072368,-0.11753667082060797,-0.08642632836791286,0.039917401036757685,0.009816069714405438,-0.06602114578679727,0.008078668545447606,0.021793671144411317,-0.02915506236699664,-0.06324333493341547,-0.03966407509092,-0.12716222103528363,-0.13237532046052986,-0.08586574525449796,-0.10836485684878121,-0.063058053376323,-0.057189540544534775,-0.09122516724516362,-0.03505427776577423,-0.030483127530775166,-0.13932945151152662,-0.14056164180048014,-0.14863358748897204,-0.020781348958138893,-0.17664893337622628,-0.07402843082071724,-0.08042485920846767,-0.021678426862299666,-0.14864373043572843,-0.06014079423703301,-0.009405821227023707,0.00845781331795023,0.039682497773699275,0.05189359644798596,-0.0010787642594295409,0.0030062731755355395,0.07275550067014325,-0.04265760102223803,-0.11333040171105689,-0.09564813665087127,-0.009724068756664105,-0.008661899626564721,-0.08596502849254813,-0.07195452778348735,-0.04764138946403086,-0.04567239694032436,-0.14189364367549795,-0.1413319480352151,-0.13855945145357618,-0.09909684938826434,-0.12435416563146001,-0.03759643354118319,-0.11729170510424076,-0.115843593779612,-0.04828361115111727,0.002214829766094103,-0.07060012798363993,-0.06295954181093888,-0.030038575417891636,0.03758744664288212,0.00355528921283463,-0.06581883178709208,-0.03187516824876263,0.028725094096483106,-0.002166523190125954,-0.033877816716567796,-0.07374313041399692,-0.12059302727045877,-0.05689967249898667,-0.0422842006847354,0.011008929192852393,-0.06974684473093111,-0.07923884188037252,-0.11102004415242013,-0.06438685969251069,-0.12034886447737574,-0.15397397839036964,-0.015153006093206625,-0.059753027559815236,-0.09466740841665489,-0.07496306226988955,-0.05107702926729529,-0.011519071352926994,-0.048364985931767794,0.009624830529360735,0.002368242053304674,0.025562413092025588,-0.02649959763130604,0.04029852843192349,0.02306889586776462,0.04113822383099757,0.013594847081888385,-0.0106840545348203,0.004729183468823988,-0.06005925765375208,0.012065174560145577,-0.07610895299836999,-0.04742516823190987,-0.04025447389586366,0.006733533867541793,0.007628186197312577,0.0009721883536575812,-0.039807590476294716,-0.04353894912734622,-0.06408065925093596,0.02238766467602634,-0.03350326877973187,0.025853208256206687,-0.049819132125714094,-0.06933301765055803,-0.025746530651530784,-0.06853158296177994,0.056104070949610674,-0.05100414882548181,-0.07273091447985763,0.048814654898117586,0.0026039740272576746,-0.018326292415919404,-0.04263094301866,-0.011960201590054863,-0.03443583889262195,0.011478406212169777,-0.032387278652588114,-0.09217829060687943,-0.047589313579911426,0.040688605749914196,0.01040657987387428,-0.05490759529561025,-0.008438158615222497,-0.0159734668757327,-0.0068208458505414375,-0.11092983314312896,-0.029159825922646026,-0.000947339373585027,0.022671195002358466,-0.004549850858432099,-0.02472716594679155,-0.07875274681061495,-0.014144042054779647,0.017854541965014226,-0.045595892502634516,-0.029349631603650794,-0.0014193495854663129,-0.005792165776319747,0.036344026437339895,0.02637740540701055,-0.023718420094663826,0.00675384973261834,0.10349536857824294,-0.017740461645394175,0.01357114631140301,-0.06269300456990934,0.006155482687000591,-0.03217047187576654,0.0032994538775061237,0.017432252324541268,-0.04086530215402684,-0.06326566970125054,-0.02032240209529807,0.007318532510303746,0.03608901670159935,-0.08455171713223147,0.018107214180434036,-0.06377870540435315,-0.08145479020124378,-0.13180387070077487,-0.04625409667447336,-7.430871995003269e-05,0.09172114976093762,-0.013493244857367585,-0.02305791234408587,-0.03114173199886644,-0.043150909921524115,0.05030209808013585,-0.06629783329994696,-0.01801623092786836,-0.011630849487861035,0.020369062467618434,-0.007423061835368148,-0.03747600750970052,-0.016643456560285343,-0.014198042321908801,0.031496424418026164,-0.04853139012905123,0.0337500217720483,-0.12668130114091972,-0.01958034467759313,-0.0966415670131181,0.0050062639659269855,0.029309932984558022,0.034229488300434666,0.00472756265458777,0.010534593335468207,-0.008163440663710716,-0.04750093849863398,-0.021011356576182975,0.00667528453669939,0.06544328107775815,-0.006220802307136436,-0.043877257045407014,0.006495529976469564,-0.0045716691821153605,-0.0340785305708166,-0.03994272959205628,-0.0845227033818154,0.07374523092228719,0.03437176556614102,-0.052113215642633604,0.004699190114015578,-0.06296815341904223,0.00400647169672858,0.035855852882096625,-0.024384595127316694,0.01661497573999364,-0.023261627761690693,0.06623109486141651,-0.005711938293996098,0.034531666728923154,-0.004836107734336554,0.04496072314074537,-0.0005751967483571846,0.03767427508977228,-0.06876473005724612,0.021446917041123517,0.03476298502517694,-0.022043777730359936,0.002019064366808472,0.0032916573856872546,0.02240160037545656,0.0012366197804428922
2,-0.04455210552509766,-0.05477908743783316,-0.026000631383376757,0.027926462974914593,-0.03454148061021995,-0.06966894339017637,-0.01786711747031,-0.0361802570874769,-0.034171345164269146,0.0034936613591723905,-0.07711719644137469,-0.06365950248962293,0.017765428032481118,-0.040530248061632336,-0.01673496280826252,-0.035924056476432965,-0.05196636210675594,-0.07665292365945219,-0.04932066431452299,-0.06635920351815577,-0.041800885092948464,-0.09514280577145587,-0.03456408929059841,-0.053413174519188436,0.011251645617920192,0.01384009898298288,0.0128348333978711,-0.028524989138573757,0.006422646452137362,0.0033349008576215723,-0.025904770698525873,-0.03725437633076698,0.02479283858779348,-0.07422021686763894,0.021076924190917046,-0.03437076990529465,-0.03760817792843718,-0.03796668951952592,-0.07134584533905595,-0.05075105937560886,-0.04556781750359979,-0.03761386218056045,-0.04040902862850624,-0.047970874515377626,-0.1019266384500403,-0.11974687861888447,-0.03130221550194214,0.0091539547885003,-0.06771648504345906,-0.1078043856703763,-0.08846680758199202,-0.04760293607332019,-0.05991051361481726,-0.0874144488180433,-0.008941948897569153,-0.0370571722491856,-0.025771074861772658,-0.032997717364457634,-0.042391085882663354,-0.010140489646045088,-0.034137791354662814,0.04334837301268756,-0.05988920068798161,-0.07346429399369893,0.02487272168919736,-0.08757514509009941,-0.10370472483937355,-0.04729288818184469,-0.02322568987615367,-0.05254266986319749,-0.08104217977496149,-0.024225957821049447,0.014991990581457415,-0.07923127487159724,-0.10922943448026588,-0.049181935477143446,-0.09308672188128438,-0.06119273629500442,-0.0628229178164902,-0.073713485412522,-0.021563683475850685,-0.0530037488477732,-0.08330620618039707,-0.007083471805055863,-0.015122683542849133,-0.08978719623924787,-0.013640490225892815,0.0059209336164621,0.03280006766529092,-0.05778027886904131,-0.02202436539240684,0.01745460629884665,-0.08108023723682505,-0.10401140937277885,-0.06092197941709254,-0.20901153086338306,-0.20412988183279226,-0.2789114924588905,-0.19393202053019318,-0.13839461324314392,-0.13377229839173402,-0.20221773448015856,-0.1589081446338196,-0.13832677107340233,-0.11204171511036862,-0.07965267421778348,0.05160154023717507,0.008271629841785377,0.006548058201208828,0.01101754969839774,-0.01805409508685639,0.03058676481386763,-0.005116423713791058,-0.0400127774370787,0.03602255954468358,-0.012591488809149558,-0.04564221369735222,-0.04180817172590125,-0.0017559509688896394,-0.057589550727529984,-0.09137442594727227,-0.1251879616469165,0.005361082510688975,-0.0468674174615328,0.01009427703656465,-0.11062278003589023,-0.20510382441935973,-0.14355902178093308,-0.11394534605954472,-0.1938082107961665,-0.3171276153576313,-0.1885826624382652,-0.10500201537778173,-0.08024266567309844,-0.017972545465472573,-0.00819316642644126,-0.04137188012331729,0.0816161781414356,-0.01680100726222187,0.036174169246679065,-0.03629539550342607,0.04604525794412813,-0.04271162872093435,-0.0015938246902411641,-0.054960275180866804,0.02380476153435857,-0.008735183750011345,-0.05017244282580185,-0.15297987893368578,-0.13426143362720808,0.028791838225502936,-0.02149009025225451,0.04512715300411384,-0.057476219451007074,-0.184207153319043,-0.14970941930659265,-0.43464250892235673,-0.5046657746323567,-0.36258520841885356,-0.19612445079479238,0.005458013054500598,0.023876485002519713,0.036552715017833165,-0.054989235334560405,-0.03613774233752427,-0.07014407917044402,-0.04031118376097145,-0.01972805028365518,-0.0019353907455816391,0.017640003821899626,-0.035956382811960015,-0.07188029142606302,-0.07667069669755136,-0.11263358632979194,-0.13025242693416145,-0.1502300847982358,-0.3457320114677034,-0.37311923181174833,-0.08943198606324129,-0.035656072026236794,-0.16283966577738504,-0.22252837993532348,-0.3777518946411293,-0.46044911453736376,-0.5745816019450862,-0.4429456759219195,-0.11121477837176924,-0.2582526415980446,-0.19752633490628402,-0.09118425461537417,-0.1463902261876273,-0.15881293268327223,-0.14480860235733753,-0.1008364044998351,-0.08501849256983221,-0.0021958722592365005,-0.013261494869185568,-0.029862045461661074,-0.01710126347120324,-0.08089523028518426,-0.16767934456905736,-0.26255849546404253,-0.24480967280347052,-0.24519496733923596,-0.2898531167601183,-0.4661394113782659,-0.06413986188349187,0.07915688541130739,-0.07676873725377688,-0.3069870288378289,-0.23649632824655753,-0.6022380630651434,-0.5199338098975187,-0.24557411215016922,-0.045850413458490336,-0.22594330365870421,-0.22393272745902812,-0.231699891405584,-0.24535401419313002,-0.31434338367880293,-0.2509214387641934,-0.19265097901667097,0.028819828206436027,-0.002804052988445061,-0.04958746859036282,-0.06815980423863965,-0.07192564394653689,-0.03225778805917292,-0.1718666374693431,-0.20814969353265805,-0.1170672825324158,-0.08206640545354069,-0.16303295359519054,-0.11444888252629848,0.07066433887946272,0.08100702921498808,-0.018498530708726892,0.06665087156801103,-0.12779262378566117,-0.4416276982210296,-0.366401335972386,-0.04859140326189213,-0.19609060495369238,-0.2904441217741315,-0.37475115157356437,-0.45492130919495005,-0.4063202232591142,-0.4005039627090976,-0.25080626563877595,-0.13417283460604132,-0.008998784631709429,-0.00016667539398760022,0.014403903810125655,0.01822071705869076,-0.008521380351121276,-0.07627447697116929,-0.10668486462863483,-0.09378650294661854,-0.10136918885753111,-0.03297136485233302,-0.19198990570388313,-0.1715716946934315,0.0034587958311002994,-0.03157046304327044,-0.16294209562926049,-0.017578370380011095,0.09881688434257302,0.08668428171747579,-0.027520705794194585,-0.20526071731772733,-0.26421424899555324,-0.520726106261041,-0.5785292261347219,-0.5542379138150946,-0.406489138850175,-0.3134990419332457,-0.18886251546993787,-0.12157504804170699,-0.030513085960268697,-0.050016197100582374,-0.08155185467113017,-0.042434741262290424,0.0042667506978512825,-0.17009698158565406,-0.13375383435964275,-0.043881227008313,-0.04065256014918011,-0.08424517825281978,-0.0825385063804147,-0.2217412700183364,-0.10583728208529933,-0.045459508100682555,-0.0520444540233259,0.1918891524031344,0.5936268673859733,0.5752645879442545,0.1629789069235951,-0.20949143520769642,-0.37318593208335993,-0.4929709929106019,-0.4819233281825462,-0.34648376561802136,-0.3768112141381237,-0.17388202771513392,-0.10375984737956126,-0.11743907862306756,-0.0472029724065592,-0.010471505466980498,0.0697814718654116,-0.009104889815772262,-0.003377603053124133,-0.10895234114380022,-0.0784277718521215,0.077846116914779,0.03112217155629184,-0.0417941951404284,-0.2800110904875555,-0.3521543823123769,-0.3682734924781928,-0.3519824235710463,-0.2621635174273167,0.0845306727775545,0.4020480070150358,0.5593083177924377,0.33147544495381165,0.010512115667578393,-0.31984819101998513,-0.5073476628025516,-0.35622994330271546,-0.22986045335275468,-0.2671005428352526,-0.1653387219576233,-0.06523041637916684,-0.18593642155641532,-0.09322645162615169,-0.011724469497382824,0.06622531623474437,0.02716043506956807,-0.08384494402636078,-0.03118332316023093,-0.08493721757656267,0.029287928682517547,-0.10596337985560467,-0.34714753136598936,-0.36730302216679767,-0.45411307043427096,-0.5345607726213443,-0.4076988608744736,-0.026265734958279156,0.2831602069117607,0.4794125612210545,0.3578275562917733,0.2235331710993058,0.02115987671887222,-0.415971486765198,-0.47889297687273563,-0.302723536482395,0.013229421702578277,0.046061193622064206,0.049324494619677466,0.12379173421518767,0.01308910037315783,-0.06233281593174587,0.00670348981625749,-0.02474366447921257,-0.016414025720361977,-0.0514176061517183,-0.06032007225316121,-0.0052486294466877175,-0.09576162698280134,-0.2077768551774388,-0.28570702978893797,-0.22257661369427909,-0.5428996287413009,-0.5743000510207626,-0.37785480921003645,0.0887413523141643,0.42349060164856955,0.3412793026428061,0.15675050238141333,0.18583964734277658,0.034254129938168426,-0.3969671238692519,-0.4323624250152059,-0.21530743513376058,-0.013278673150181691,0.17543400784363553,0.08507933675728921,0.09095458540560655,0.09464980391939364,0.02289928690391355,-0.052474749195762505,-0.0350212457319746,-0.002720576969619144,0.02851483946697596,-0.014712372983083973,-0.09618989473937471,-0.0992447205398616,-0.21199108786308365,-0.24224111819394786,-0.35680571417703794,-0.4340942484216386,-0.27604264743948953,-0.22239869835117493,0.18300367261928915,0.303259482950868,0.259501104295948,-0.13222531444230837,0.19732134801272216,-0.3111001478175376,-0.35549487588487894,-0.278011454213673,-0.12411219063681689,0.03844495261264852,0.23849824940828196,0.3068795443666984,0.22764918832953038,0.036664304477175017,0.06799570432080494,0.010207357612424422,-0.042024973164976394,-0.04753104305606788,0.027343489234767225,0.03923803058315338,-0.08636963843798566,-0.12128750682847618,-0.21622575618018844,-0.16973174748600753,-0.20365076367650314,-0.34905244518678474,-0.3605389231611405,-0.20675805893680027,0.2235918829630989,0.5482506388516666,0.02625797395395749,-0.2210142515452247,0.038547165779673404,-0.3430083668495774,-0.43781199887260347,-0.3353356745523515,-0.052204153636346964,0.1128756430923709,0.3075644006490174,0.3318294108050047,0.2347493794771685,0.14608130843913256,0.059918911464902136,-0.05873821059827996,-0.04395131545714148,0.01798152297939186,0.011825129873643984,0.052415460658247565,-0.1341116221589568,-0.11516353308466146,-0.14764239649065652,-0.09889824738796575,-0.30985443303955185,-0.402727095710409,-0.29168360948545957,0.10318252360655499,0.06320337209031848,0.2954692047367832,0.18127015523506423,-0.05611791099271766,-0.10742568678308556,-0.44177885520751425,-0.28962322795339457,-0.09130308407319637,0.022343104823061163,0.26510847599070003,0.40343102519974583,0.33107062694661904,0.2555846267232774,0.20629015948830487,0.08114602056780573,-0.007691880013425599,-0.04834034047051648,0.09692201073202573,0.005213945320608341,-0.06322212496569368,-0.04686262913281076,-0.1220159066217194,-0.14654278644961327,-0.12563453059191115,-0.3160458361494143,-0.40270641652935,-0.03249495377306935,0.01226696145803012,0.28096817090413095,0.3759674990274041,0.3860293097007883,-0.11695492238104431,-0.48744417184612904,-0.34349849459070325,-0.0875266777691796,0.17804023695264662,0.13108515047421287,0.1041123936059499,0.1492545437115692,0.1856093121819709,0.09543805248973497,0.04875470668385702,-0.004214921481974445,0.049595741970579726,-0.011777006310420604,-0.050927930402610906,-0.04934850720887223,-0.03640469656734856,0.03675426206772278,-0.2642184754412589,-0.2679886762886281,-0.18868688700768213,-0.20926828977342693,0.08077439128842628,0.02729403868398459,0.06891210835901619,0.2332039060784677,0.24919816518858562,0.16729656792259745,-0.12263432512003529,-0.2908962800106113,0.030232692715179966,0.10141973452718743,0.20075375067866866,0.06463402124837045,0.07110069586550825,0.0969775823713811,0.11592919993525913,0.13035833507474723,0.006578453154866855,0.019959503082365965,0.04850641242603569,-0.07182550360397996,-0.060350177767015185,-0.08917042818963344,-0.037971354397002804,-0.024213884167938605,-0.27706235546589997,-0.40350548421022264,-0.37269277268643397,-0.21534751343413494,0.03990991727933876,-0.05378841827874283,0.2243618893897991,0.10060545340511359,0.18941891825284843,0.2191346645814245,0.060262064328579584,0.0871327135187946,0.11986278440824409,0.08162171741198482,0.021266758240457408,0.027692995592271983,-0.03856762776087333,-0.08641836905532316,0.09937558246885975,0.011009315874197116,-0.024600632479410828,0.001613774475510211,0.00847936805074278,-0.007968035260649467,-0.058703776939767555,-0.07145803031420334,0.016060321218147152,-0.05792337480924631,-0.16316385319348,-0.3935051650432042,-0.34323600501616114,-0.08599218336500612,-0.0945708547898674,0.05836851616687958,0.24790052085280875,0.2504183815661581,0.06967036110500809,0.29961654115595393,-0.009030967198892086,0.053882158928086114,0.046903630991491335,0.03482451750102692,-0.0753889300476835,-0.06059329659313894,-0.10137406578605511,-0.16088463631806013,-0.031094957289552576,0.02824507085143166,0.03464390979185196,-0.014297916256292084,-0.022796184488856938,-0.02086835905867316,-0.1103296961429829,-0.06243395121656626,-0.06885323704272085,-0.02677540024281641,-0.17410186480046091,-0.2813607664734117,-0.23043912560123175,-0.03951816872778627,0.056654431643815645,0.3030323972345015,0.055270478838140284,0.021735371215364854,0.09984512113281749,-0.017295804725069523,-0.12304167535352324,-0.060543036689399386,-0.03556205354962941,0.038928955587121304,-0.021284453912143685,-0.15322741422951422,-0.21892206053330346,-0.1304955606014952,0.04278371335885091,0.057945357774714205,-0.04736563679726203,-0.023201995177012685,-0.04543774325647014,0.01916247936830279,0.002131114101788136,-0.04121704059818855,0.0034825731249516468,-0.06731581053800136,-0.06451949309915349,-0.1473019568995661,-0.16561569616778737,-0.0876323916765034,0.1614683341034089,0.07380899509195596,-0.25516093191426004,-0.28611778692949275,-0.01074251689820903,-0.1821621467502177,-0.2939000479284631,-0.07087228796169688,-0.07342590116826554,0.05045430836395309,0.04284974588936649,-0.041683818612065174,-0.1455302968609011,-0.12733454978760442,0.08502845948594263,-0.008156895956940921,-0.041981375645518425,-0.0016432583649374918,0.02133524551283137,-0.06083780403187326,0.013116689835064655,0.0268431775209023,-0.014899020676847941,0.04526832065443726,-0.04196694978211848,0.005814612083159459,-0.06766611299505654,-0.09317528484199274,0.01565199109008765,0.1060256554794623,-0.19255568478859394,-0.08199783943399092,-0.2803736963378888,-0.501037986267488,-0.25145611765597276,-0.12473509217869407,-0.03324732391106696,-0.07102770462970105,-0.05468691976576438,-0.07242753335813693,-0.048032392871382695,0.02264527760710386,0.033929234393318616,-0.005824661777330566,-0.02935143782635743,0.012826922689643196,0.01416714798857216,-0.010583841408779543,-0.009741301856566274,0.03501349075061917,-0.060948084443894136,-0.06614787792189053,-0.018990370909716465,-0.018906507929410787,-0.1254931648180729,-0.14279059608805558,-0.22913830105086805,-0.23284804002990833,-0.3607179653565327,-0.41575471622836424,-0.48645716477592804,-0.5548371397808356,-0.5073577195789595,-0.5164805378179439,-0.30458992005897967,-0.1189529129236246,-0.16363030109553678,-0.12791611523639973,-0.01577601464987671,0.020745369679517647,-0.020859606148960215,-0.029706164684879213,-0.03322823336061786,-0.022560570202984253,-0.029421676055514955,5.12448163875095e-05,-0.0461655872361364,-0.030520038474539612,-0.02728698811218622,-0.10370509947569015,-0.04818763049386429,-0.02893297919433284,-0.10551792114338217,-0.07043662259755011,-0.15407593862795632,-0.4028115853642529,-0.39450381266364715,-0.45202973628485604,-0.4032714267682084,-0.43441336555174725,-0.4908278811962941,-0.30109019730598524,-0.19329017802499113,-0.15049264335336823,-0.16516538506515624,-0.06320324115881422,-0.08153932462997578,-0.008146113166488377,-0.019895807560266224,0.0332252093543662,0.0010655204808319723,0.010549732737592186,-0.06267910089358159,-0.03078419715586704,0.04831597650029183,0.01997692606951967,-0.028744129898550897,-0.0013517427314131542,-0.0009983899068450991,-0.03069598980408684,-0.00783836306019299,-0.12020697157379232,-0.0514486114385302,-0.1313077285120528,-0.08886544763161523,-0.09930315737845165,-0.11613669848996784,-0.12399544317044499,-0.14283458347211594,-0.12549477399672646,0.0014501620085854744,-0.08106521193831191,-0.01928993853468228,-0.010794356063934089,-0.033946520454887934,-0.03643333355830256,0.03268914737081286,-0.02174122843966228,0.02044785971187495,-0.05644165897437504,0.00031509474805928317,-0.011535117616871218,-0.0849186229493924,-0.013168191770090312,-0.0532374984706363,-0.0672262582923342,-0.029554591993925898,0.03491363232192946,0.0017458424335467409,-0.08174394434371464,-0.09357874991871107,-0.05169572019910402,-0.040110182913553845,-0.0348091769643789,-0.0544301359078913,-0.07249750979382427,-0.09798897939748902,-0.030136629340419187,0.012336312303241418,-0.036763648093550816,-0.08455606402185589,0.0459730281992488,-0.0058513002587429,-0.031976872085445314,-0.019978144817950162,-0.023684119144391197,-0.024549860820375025,-0.008707287992833084,-0.018841573126169804
3,-0.05976296629270627,0.00662546462802805,0.028348234299915506,-0.028198477568378642,-0.1095737482942761,-0.03998173655098623,-0.029435610440108655,-0.05344834041363906,-0.11553541033806303,-0.06501371628905661,-0.04304928594531285,0.017570217664132585,-0.02287886866780688,-0.08478437395163793,-0.027828783511001702,0.0029907019263039378,0.01471024836359346,-0.08685999277571486,-0.0001026302538748896,-0.033844321331442835,-0.04642077906256349,-0.006427153853929413,-0.018557773361135628,-0.007684820032346286,-0.07943928421219233,-0.08170281882655113,-0.06128806876317364,-0.045392291987652496,-0.020746349939009687,-0.019133916565387897,-0.05412093467699529,-0.02493607678867573,-0.04156813358003369,-0.06779699160368817,-0.01662800241538194,-0.035902926876758605,-0.12221076948852813,-0.06688787530030235,0.025513150611542093,-0.011684041267438626,-0.0212958755254977,-0.05862746234898589,-0.12216773265334686,0.005040837502694081,-0.05471042666548698,-0.0672559824595853,-0.09083178889721974,-0.19631739111663488,-0.04833366170540642,-0.10503080043060692,-0.04896785103566229,-0.036123650335759885,-0.03935619027237639,-0.049490654873424404,-0.04840324853889434,-0.04143552739745492,-0.09719582669499661,-0.031134383293173425,-0.059350604586701966,-0.06835152333580403,0.014132888607841735,-0.04297077206994816,-0.00748171182735616,0.0011338683563630702,-0.057534097490462635,-0.037181913018601645,0.0508592157500916,-0.033218186958341556,0.0773619508937772,-0.044717483455609504,0.1282250477246438,-0.004626567234607551,0.007228322895946665,-0.049564645817273156,-0.1294351742502025,-0.042642266281050084,-0.06683287567404954,0.01613890932174017,-0.03945270347291619,-0.11757984589910418,-0.0017443407187978288,-0.09794846329125557,-0.035298702702580065,-0.01903127814391456,-0.00845475731043496,-0.02360348586402374,-0.003304185405311475,-0.01994717268462224,-0.10136011623337611,0.016744343190676567,-0.011950797874239406,0.03367421961869505,0.12162043339623829,0.04832870517612065,0.18444316499574737,0.1912300508193648,0.08666763580582758,0.17998527149845628,0.4080413230075719,0.20083882853902382,0.11148206288042832,0.010051167149806363,0.030389159352989983,0.035594421974538965,0.13605720765275983,-0.11520643446190396,-0.10212804626574178,-0.019945967919037626,-0.06548757047963484,-0.034062203815058645,0.0033574020692753886,-0.06276973607259052,-0.032418339290291136,-0.05272583358322852,-0.06683501060068317,-0.10423081112484993,-0.022816174692130632,0.035463122854797975,-0.05760945415874996,-0.022940284736551693,0.10304906492537201,-0.008528081093109393,0.10708822317036656,-0.06826701950026864,-0.13592819595972713,0.045724502321318486,-0.03858650263865419,-0.24413668112830056,-0.6364350844958913,-0.1788035215461658,0.18630376394882428,-0.35690725298845577,-0.3833892011209763,-0.5464312669483117,-0.15070954901432165,-0.15556428771389036,0.0653444250789462,-0.05690692692823218,-0.07620368817446738,-0.021654740150743302,-0.03217289099028352,-0.04654604454604157,-0.03330977828698038,-0.05661998465768716,-0.025212610958148217,-0.03059626840833185,-0.15727910987031402,-0.12438822545160548,-0.13691222108444268,-0.2506776321756645,-0.23074987989802348,-0.28445177761454665,0.012457435383265044,0.2760158498366644,0.1123855056695168,-0.07077961887698334,0.1022796750121235,-0.057651346023280106,0.29013642921674915,0.10353769968236318,-0.2437956284137128,-0.4405480536588033,-0.15396228128679504,-0.07737392222901185,-0.03114529562335969,0.015681013202739534,0.01220834544076998,-0.013284608514058674,0.013338293101030818,-0.009351978237140008,0.017667102520815395,-0.00990649743040574,-0.13213880091952632,-0.27394974829506963,-0.278558888891071,-0.16976712428175583,-0.5088124347153199,-0.5776633697407495,-0.5239555553945212,-0.08187235700201664,0.008879579688815014,-0.036645062453455925,0.1538318908933793,-0.01414157643203477,-0.052501592458517876,-0.2171463479026634,-0.025511930075170206,-0.18811766045363112,-0.40727513683444544,-0.29017756242717385,-0.200695949380462,-0.24971882692987793,-0.062626174428395,0.10694003587374465,0.07306430895056382,0.08180368551781007,-0.02530798797837355,0.008970802504783547,-0.030424451129147937,-0.03527672556994563,-0.08897825252740109,-0.11214211360718562,-0.12447942208008135,-0.35692142380931613,-0.3371492301455199,-0.5908949567110573,-0.629782262679258,-0.07694124488611549,0.13968740228092896,-0.09296150652211059,0.021728201999954982,-0.06536094349915743,-0.30081814580692146,-0.41190390428939155,-0.2538744751367983,-0.3928514574183525,-0.5147368222718179,-0.20918953438176002,-0.20551126368491296,-0.3322764333877305,-0.23270433560755538,0.08093651963073435,0.000468764137880789,-0.06372246478823222,0.0014083922665657017,-0.01262717857007745,-0.048611504503139925,-0.02160769803696892,-0.20037167100717101,-0.21954410233734506,-0.17586225195603172,-0.012038262068617,-0.12161879392187927,-0.10807275176609285,-0.23622505841447278,-0.1301955555415567,-0.09747443231538705,-0.048021187824886256,0.04199558185245634,-0.2574973042499304,-0.3016107437461917,-0.15908761307817584,-0.20852730723824472,-0.2859538072680366,-0.1435702952629808,-0.08051672478440022,-0.4823678869681308,-0.17420118821010194,-0.150439283410916,0.09470087733260663,-0.07879687159783709,-0.01541595424342402,0.012800162174847926,-0.028048339076886905,-0.03297757026851118,-0.035831234170394695,-0.24556503349435327,-0.09111990367325232,-0.23900965193700974,-0.19097330648421953,-0.10265282843813406,-0.3002720500548759,-0.09954040373139358,-0.4831002042823176,-0.2033902585192055,-0.5675033319042312,-0.16742504822757512,0.09462816751795236,0.08383215157114024,0.13901968714371035,0.22974940517308562,-0.39498132872943015,0.05487882070067316,-0.019764912072907835,-0.41423432455881276,-0.3986788002272714,-0.02176720104692451,0.06750890944842852,-0.05493953303483535,-0.03461019332816653,-0.04275852568514334,-0.10249121847593257,0.034630429824091674,-0.117077683095096,-0.3160638318697513,-0.03832027004969474,-0.06140892213837682,-0.21064820970084436,-0.37010899552629045,-0.19631800709995162,-0.14137374738332772,-0.40764693089334736,-0.04424521775134016,-0.04971077211498764,0.3505414054005393,0.4924286927833398,-0.02000799654570591,0.1015077699480921,-0.19116846994364858,-0.4074443858491841,-0.23283710166252922,-0.0430212345490241,-0.3302268170199303,-0.4973751503865469,-0.13734794967271124,0.12680456952893016,0.05567310583334878,0.008198742663550883,0.0056235068557758585,-0.059880904822085114,-0.014491906285245887,-0.005974821517361055,-0.21098469146286103,-0.20653707129073026,-0.14762868418258737,-0.38192313733005956,-0.1045074961740077,-0.2244817670033351,-0.43392753450747745,0.057285735279093634,0.024338547201432224,-0.12559759482790245,-0.3590541447996524,-0.31540064287298175,-0.37716954709989314,-0.014290900999412942,0.03725923244605597,0.021579324419593017,-0.22603839163681436,0.0006977425135524986,-0.46918193167069794,-0.8188010114555335,-0.5471184115582337,-0.19860695690341693,-0.15753254598741942,0.000883635158219225,-0.019277991996185503,0.0026185219711594154,0.007493768148531494,-0.006831140115349806,-0.15015007590910542,-0.26023934045460206,-0.28738754815140255,-0.4145433117514662,0.0357531958952233,-0.0291073706189477,0.030342920394624474,0.33523918738466757,0.09777197667297018,-0.3984145429108742,-0.8861942806158983,-1.1796638446182552,-0.9906479397244765,-0.8397769491954882,-0.29751358184406906,-0.5768059194455191,-0.27161275044655364,-0.14241823933050776,-0.3816316382541205,-0.6086454323456568,-0.2198376501672595,-0.12271379637676556,-0.0010984889526795575,-0.0020117571291438353,0.08417694203512634,-0.043497886369630735,-0.09229910111985001,0.039580249592279244,-0.19112710787454737,-0.24427769507322997,-0.31605139470241644,-0.21221231242290628,-0.22416255342341068,-0.15470466947767253,0.0016718828651812873,-0.220763141691754,-0.4191656740674662,-0.6037546522377761,-1.1225565440439529,-0.8418029764907832,-0.880477834389538,-0.6494658847624264,-0.7552253447071533,-0.4933103115872257,-0.38217754032474477,0.05765944558059124,-0.028203612193091164,-0.2727392325225062,0.03681721597134546,-0.05760363465713289,-0.008371845451322156,0.036034237229046945,0.0012909766966538788,-0.010018422845720475,-0.06177838061590073,0.012538106588019121,-0.12894293150591984,-0.3456621598496476,-0.3937062598019211,-0.11558382339470058,0.07192161242673313,0.2050417743352958,-0.20148850876618896,-0.2750847402665545,-0.5216315117916008,-0.40770976888208205,-0.4975924271717852,-0.10045635604390943,-0.2782789306470595,-0.6608299036588535,-0.374105115064881,-0.2679596574872303,0.5381459611788754,0.36727727200766797,0.23540427315459483,0.03929188214121869,0.04603694645882165,-0.015380016165959366,0.032857469230625096,-0.03358870984508569,0.006300091556706054,-0.05065516880034942,-0.04186381691908167,-0.02700663343160708,-0.08578593824232893,-0.07276364812611559,-0.012133843204596366,0.03458202509459148,0.028331473627854615,0.19230343678758965,-0.08732695663104341,-0.3830172543531657,-0.2505363008201027,-0.4561835784612787,-0.25082165294778913,0.13718246259479974,-0.18560005543696395,-0.3263371371184265,-0.09662233613191668,0.14802261006462994,0.5711889911123847,0.4782259148785607,-0.04914319002479705,-0.03808674032363675,0.1979646083320589,-0.00818856811908877,-0.033791786733007936,-0.08362264039931566,-0.05251000763338924,0.01587495960675048,-0.14931950472275343,-0.11184051374933116,0.006425620762275349,0.03983423063698926,0.07179642029235356,0.05669666326765995,-0.36568031777263277,0.12198774632849603,0.09598982559443844,0.08067762960005183,-0.22363855539025734,-0.2423251054342272,-0.14371602397502592,-0.2380544243163103,-0.23037457220536928,0.12943345123015473,-0.35010943806105244,0.37585540859995353,0.6159192992253706,0.3296165144219842,0.21155194947863137,0.08429455816013637,0.2115164959839436,0.09038204523798332,0.01590933863417472,-0.016867439722885232,0.016472046454647102,-0.03580936126415905,-0.07309925954042207,-0.09148907593952728,0.2516047896559002,0.17935340774018554,0.06826210120269444,-0.1639376415108358,0.21738392749070953,0.2782258295386454,-0.06210085281686793,-0.2705323864148741,-0.5419951448943661,-0.553750604053641,-0.29307923348160003,0.10187073336051652,0.31131355394377636,0.45078288604695316,0.15605699476797372,0.5053525240224697,-0.05312385638347444,0.07082499554109219,0.3449353563628418,0.22352056527371514,0.11849845321795309,0.17393842236735024,6.750607558260407e-05,0.00071118947396247,-0.07473537654092226,-0.09582828615857965,0.023706446018396374,-0.006947942444131429,0.30740815190605186,0.0568411784668645,0.14680124858302793,0.1837359706565998,0.6174209124768854,0.5554651813034059,0.28248770222637076,-0.31293152612041786,-0.2740294839038177,-0.19430946484755088,0.09890028148633773,0.6714864186071008,0.6324302985451042,0.3068085778970755,0.3614853626460529,0.5028731273371742,0.043174984857363485,0.507815431408491,0.5648021792811349,0.510541054824616,0.46576352652168995,0.2636914310244928,0.03377467295838823,-0.038991320207102914,-0.03566971708033105,-0.07222020818319198,0.026502119731168707,0.04569600734539112,0.24052343737381465,0.2911705194445059,0.39375850703121135,0.6327466263720841,1.066796605904998,1.0843923948917296,1.130605839442102,1.439426746595393,1.1778426103910342,0.7872228674610088,0.9092590910240687,0.88420081655158,0.42953696335697406,0.44061359126594696,0.7120899307057629,0.8044972777550035,0.5010555116750909,0.6241287460045871,0.6594504959049868,0.6130449642930411,0.42183076711181194,0.10973809045832379,-0.06114864880921196,-0.03495122675830837,0.00028675069196624787,-0.07199014288318248,0.0008659828976430279,0.10168496797486237,0.4056480535056481,0.5339051316465967,0.6729961901161697,0.8250609595619325,1.3620504902377248,1.4535237077794025,1.39385143546742,1.5573647618002153,1.3512682170868116,1.0249067400868108,0.5821055047566674,0.4468166340291868,0.6210734343864417,0.7031171204375908,0.9523728367405404,0.4346119435722981,0.3458389256006636,0.46913447732569047,0.5765987876058496,0.5815311945654071,0.16860882970164323,-0.027325224041875356,0.03017661162300523,-0.04166556951051633,-0.09001673638460972,-0.04398308754792959,0.013058947594926637,0.06954259948719671,0.39567703077839,0.1084506207492558,0.20175983418718302,0.2462205048002367,0.2808413697717868,0.48320651943128384,0.27722152284952484,0.3983561028418013,0.31819915436250484,0.44753510686929177,0.2236854811564458,0.41875033796070704,0.29075260654440804,0.3381173675426135,0.09566994385031898,0.02772755782240601,-0.03452764177465514,0.05633168468214443,0.5050990792264096,0.5013446510353314,0.23145201516600913,0.09247025229880232,0.04350513945473176,0.016680797069615585,-0.009841447400062986,-0.0070264008881884225,-0.045678653198249486,0.1409821010362852,0.08140720399406266,0.010596783564349196,-0.18883113293772508,-0.28769581493023466,-0.3032674925361371,0.05305291547120408,-0.11805245822143479,0.06267665711661809,0.16990561894689657,0.12567360415875586,-0.1946456150555739,-0.2046744957815804,-0.25541842752983573,-0.1206398738846533,-0.3042068220932766,-0.45429729869622554,-0.39636757646947274,-0.02006642532630438,0.23771343826113833,0.24160711217841085,0.19446597697307919,0.09174521851175645,-0.024465592881887207,0.030556025500653908,-0.010859362264267846,0.01058265861215948,-0.06991487635851831,-0.043324851387628045,0.10645925854859797,0.09885771083358989,-0.007275554684767907,-0.15490158264745615,-0.19103166202572197,-0.1476870963737797,0.006189512443202291,0.27747201077225603,-0.042255330744982576,-0.0974813690453122,-0.38011224459486576,-0.37862711504491464,-0.33333506845181493,-0.4477160428680366,-0.44227621453727395,-0.4333886956426615,-0.2244910590313655,-0.028420271845187264,0.13577676947867423,0.15903847174486652,0.14285692803049008,0.051316853824480896,-0.010898901621975291,-0.006911983275146049,0.003813589304181456,-0.05888600572107195,0.021056732293658675,-0.05227136426918193,-0.08339317150286164,-0.19914326764733584,-0.4102997527245254,-0.3749915140278131,-0.28282602143809404,-0.08617474850790255,-0.5981714356862586,-0.4833834563151482,-0.117610871867161,-0.029200757159088802,-0.15081342642748696,-0.05043989095624255,0.03928391105747148,-0.16127914862266304,-0.1443293453906368,-0.2977233870941184,-0.27943068959605916,-0.1368501853409893,-0.08191280784197681,-0.06881278120022592,0.016144135250235808,-0.0008300099916317804,-0.010873219020361126,-0.006941421932154093,-0.05385691369074008,-0.06781794455343701,0.03503127055509894,-0.09152639004821538,-0.08929249312765637,-0.11093401545931753,-0.2611605731834656,-0.3670159452405985,-0.5036895644921815,-0.7615867945384553,-0.7875636298186601,-0.7033868975732662,-0.6935750360288647,-0.581519673685873,-0.6006172237593448,-0.46320330559731987,-0.33442432957187024,-0.3245470329131626,-0.14154770306247547,-0.0691298647457976,-0.151616257924602,-0.2918529093003376,-0.11675754768917071,-0.019030772170622944,-0.0038997133926329543,-0.0021156252620169644,-0.000764020855564457,-0.02479474285933507,-0.03373975097806665,-0.0017101561201846214,-0.025833354543724873,-0.04442467654302022,-0.03466281400607906,-0.08443702828964618,-0.0496867023776833,-0.10974148401092329,-0.2246077808047451,-0.32021866204559646,-0.27440848592606903,-0.27109369492536645,-0.2305024013086139,-0.19805690307035287,-0.2164339505700622,-0.10356792623908398,-0.17335626026710144,-0.10996417839425142,-0.1759589114011906,-0.09762367668337847,-0.12836317417855753,-0.15438405490754742,-0.10511079208365105,-0.03740371459782242,-0.0714662526466035,-0.033587606981484566,0.016667267723496818,-0.016746053981898462,0.03789154989261271,0.04571709307014074,0.022407840576921204,-0.032849241743446264,0.0022415053783899357,-0.08974184211141598,-0.055701513883183194,-0.05865079900166581,-0.06160071276070389,-0.12867743885168362,-0.023498966744677895,-0.12315734254977018,-0.07256686484247965,-0.039882864259525225,-0.09857354628597347,-0.06408145686068498,-0.02903400645536628,-0.07179443712458028,-0.09129138810943152,-0.06835301098766118,-0.10652127746509517,-0.07985594785462188,-0.019888028960125665,-0.08403376864318582,-0.08317286430045098,0.03208832989961034,-0.01004899269206321,0.010771135374840719
4,0.04331128365889056,0.046077507243537694,-0.06426039997954366,-0.06572916548460261,-0.059181581098261,-0.06243925673375615,0.06344746947200793,0.01916303689859586,0.0007956111503351904,-0.027978628382823504,0.003607419909150936,0.1103435085650573,0.007646677204701446,-0.06812832545561916,-0.027070235888615908,0.03473062922275634,-0.007819685440341282,0.0206874797452516,0.026068564185987686,-0.053069494945059484,0.031022674031054354,0.038946715547781986,-0.06952121678794836,-0.09619956505212608,0.02015959039040527,-0.05614448518798817,0.03845861326059898,-0.011966065151293677,0.005421166304125627,-0.007311142404999929,-0.019162253849849903,0.03063613673497435,-0.016285585098213654,0.015960767238826633,-0.0035375248818763166,-0.03474086662564804,-0.009174072097407665,-0.013202061699758362,-0.036490196506330896,-0.030907743730298483,0.01898830424261635,-0.0008176029888819806,0.06829160214133521,-0.035655211231614595,-0.024909789754376032,-0.0698497376064978,-0.03269459341908432,-0.05341847725770072,-0.004127746214869145,0.009990567938688832,-0.033358532010799406,-0.0009435757718319692,0.03523245433710389,0.01029974753776314,-0.03427717622407667,0.022915462918766113,-0.013312179955582424,0.017481793124873454,0.025005599372873524,0.03727491116229876,-0.007067625177922171,0.03821525611972964,0.006650334215639053,-0.02649988224782024,-0.05497142700763195,-0.001320487410861612,0.008268252900074564,0.05949341889752747,0.001569166689844754,-0.04514975042597447,-0.009886332409042924,-0.024942187018069724,-0.059918599355578174,-0.0739997431568871,0.022948063232637872,-0.0005559394657737212,0.006603855764851935,-0.010427063022131783,0.03420419127067079,-0.02758936383586454,-0.020926704623850875,0.023091725248796595,-0.05889128383086432,-0.017009303568807775,0.03082713699417158,-0.002496814109945671,0.035914538478320074,-0.04383544665065042,-0.031983930710975064,-0.00455311518334845,0.025343755931410295,-0.019639560911928068,-0.03904075898867988,-0.039359780213007,-0.07093005196707415,-0.08257506349508911,-0.0846656772216645,-0.1371480902074262,-0.07557257089881064,-0.08191298924440435,-0.12142812565686031,-0.02548234998835465,-0.08775285516330747,-0.057929207607901934,-0.08247457246464075,-0.05976999190580348,0.008872514071961393,0.02837331853091492,-0.026376363557195887,-0.003506195033543563,-0.006181680763336057,-0.022841183773157418,-0.023516298249869397,-0.03366245089198903,0.009713118316579937,0.0025660159707885074,-0.014832687992061494,0.04786290383413888,-0.011247939361272826,0.007218368763199001,-0.0048126629439739,-0.023029820902281995,-0.06799476266464939,-0.1591102797694693,-0.18432621336004756,-0.12912470280012062,-0.1312325707064631,-0.1603786342067635,-0.1596038336298705,-0.1545043437069683,-0.1290040310128865,-0.13984220431837863,-0.13614765853047983,0.002574343459415438,-0.0018036556053827322,0.01490937874281542,-0.01720341920717231,-0.03004791014850693,-0.04949048339690798,0.0014110866767159524,-0.020324717560846948,-0.04220376007812371,-0.07380631005979546,0.011169917160751006,-0.02306134525811113,0.04885845204326434,0.045974136594848836,0.06062901610380759,0.13517784047337897,0.17536052171429733,0.13043101596724851,0.03579848795661841,-0.06805572448216565,0.037405563870802294,0.06374526926718056,-0.030665258146632013,-0.13705447736718349,-0.37767409517192896,-0.4097167966109595,-0.39567239767145934,-0.2558268056998133,-0.13682438623009166,-0.12167927711276494,-0.022421092516848824,-0.021005265933626276,-0.061343661349869405,-0.032260758888616355,0.018207188999711174,-0.014300192691077407,0.0386081883381949,0.018419359849104623,-0.024998011828800643,0.08219830824889042,0.08823378840017172,0.06231930011006202,-0.06036799604425483,0.09048299636449622,0.16580380750420234,-0.01493308853651439,0.2959096326740906,0.4289016303567415,0.08544175999091987,0.06429924047962976,0.11551244326052408,0.16397777445795542,0.20802015313535216,5.905143163367443e-05,-0.0447805898127608,-0.1886612003135735,-0.05369672501756072,-0.08697710176071234,-0.04535289989086205,-0.09584524336811917,-0.01729143281905648,0.00904763618675321,0.01309798751054917,-0.016412302224822716,-0.06779777784889537,0.035645406895653306,0.049781963312888616,-0.05426341886495045,-0.17996377662343055,-0.20091394703230855,-0.1472261610381953,-0.20244497433488326,0.1352098057368034,0.3301620593481052,0.38605878691063394,0.3636149228768435,0.3481540234312679,0.020083456505729385,0.08770936712805529,0.4763379318075996,0.5248548349752281,0.1644069402828584,0.014714227068809633,0.05068349082004547,0.05529961557591057,-0.05029790605764357,-0.07951621900525752,-0.1637571538973534,-0.11249149650439796,-0.04665983513801999,-0.01201411473552016,-0.035025011928982934,0.02227327954928507,0.05822420462495356,0.01703450149189041,-0.1370787398713325,-0.31639738552488356,-0.5052044849119961,-0.19073086298494732,-0.17562148593017635,-0.15910995029420505,0.056799842355154166,-0.11493532070321501,-0.05697181499222586,0.10387993716923766,0.2508314900032203,0.5882268469367576,0.12349538058272486,0.12985236660700636,0.1732747702500175,0.025668601563975425,-0.03540861767966908,0.0952861979855755,0.1044809206589425,0.04305600654909996,-0.10241530607422428,-0.12171510018595214,-0.0004736549650856928,-0.04859802065527108,-0.04985703458883087,0.009914882308689504,-0.03755655546334086,-0.030504787217079166,-0.05324208049454751,-0.22462030536180455,-0.20738192686440246,-0.0954005679918353,-0.13562348071148386,0.011829126645906516,-0.031054839980466636,-0.36543026735134043,-0.08603231334547891,-0.038020289848706756,0.014834643983303922,-0.15123211378350998,-0.015164147209323223,0.08488902445199,-0.1293552419684563,-0.0013046692686843058,0.0025873074051172857,0.10873861231486415,0.09357386206226416,-0.10940865781178813,-0.11947236152436062,-0.09896185792148611,-0.024555627183324644,0.005770338576009693,-0.03875679057925766,-0.010951865966804156,0.020096933983015628,-0.06412672628233128,0.03238747649776535,-0.06130199285547389,0.014281930567856274,0.04361597977573864,-0.02331064660401523,0.2201353603436381,0.3779925775754137,0.009219102061128727,-0.210159788670058,-0.26777469784240615,-0.9630605225268639,-0.6866524348462117,0.09274820416159442,0.18657747215516957,-0.4518679665168715,0.13075083209945737,-0.022263084137646535,-0.015277375653595245,-0.04797626340563985,-0.06940401242665756,-0.08971205048836785,-0.05713163341177407,-0.022892107254159612,-0.002359530816838196,-0.02558786464019331,-0.039209005815658206,-0.002928419793695579,0.04764994239559313,-0.02012390670971765,0.08043642442867174,0.28425805811121524,0.32180324678647754,0.08906509191144546,0.5240610922826334,0.5255424137541311,0.41683669353018904,-0.1264785777483544,-0.9599491695511163,-1.421115696397425,-0.6318842067146097,0.14808499189415228,0.21394496698347726,-0.29752241851158934,-0.1346153801979374,-0.10610070551313665,-0.2652962403265781,-0.16957731255866867,-0.2685754771215185,-0.07571475200630082,-0.09073441957779696,-0.00259101433842864,0.015872644551916813,0.02446031509007262,-0.004672165673202977,0.0660064518636245,-0.04355942936242268,0.09542651672326512,0.18478143606905637,0.20833249046760366,0.4233853227795447,0.5554994322296447,0.5992338377460001,0.7580659095376657,0.5082734297805596,-0.4658253893228901,-1.5451994379438143,-1.3533133948211253,-0.170203237862792,0.259560945811935,-0.05482438028585651,-0.1199789520226674,-0.49297803463328344,-0.3873455934816622,-0.3119924311389601,-0.2662945624588973,-0.27898585289952776,-0.08541064754121028,-0.05103817868260444,-0.029214020500166766,0.01809411049673324,-0.010242972920158494,-0.007019505792683424,-0.02654845834841127,-0.0590550987289894,-0.0612259976348593,0.11759690211306284,0.3820440057750537,0.48221493643473895,0.6533811458571075,0.512029723971008,0.4096342450899374,-0.13552097705304048,-1.0531682400334217,-1.3994474712468092,-1.0283757772913937,-0.10479047027466123,0.046573800309690466,-0.19431571279346144,-0.25394207568975585,-0.4193379244159699,-0.34259351452046877,-0.3502733020364865,-0.2810332771947965,-0.3562659167557896,-0.10450355934264031,-0.04915244930566275,0.014989245927624241,-0.009138510009247716,0.002380548335957675,-0.02005922096332432,-0.038428543047073466,-0.039485446685113744,0.06725524787582947,0.09748386226386142,0.2721381445068023,0.3339244076001126,0.28792151777560554,0.13009127926760633,-0.12347017745792965,-0.6620881845305253,-1.100201434460684,-1.250243914120448,-0.677032263722245,0.211852940903901,-0.1495155828309927,-0.3640328601667253,-0.33244287878158646,-0.04021570538290539,-0.36093944772614933,-0.30792890119470984,-0.25774253242665834,-0.17353730003241669,-0.09316110674633288,0.03004131568761989,0.0018388641134324186,-0.08968811317012208,0.04702328116686695,-0.0125487976767765,0.02918327606659378,-0.044930410523904195,-0.031488609180886154,-0.09579613025685867,0.09704564301161568,0.15007445197705924,0.005260366716084805,-0.23757829838688158,-0.6085454770319308,-1.1044084489192085,-1.1461088168595606,-0.8950691949187898,-0.4334893237913934,0.13247535432575827,-0.3352610429298511,-0.27152112883526014,-0.08387968959100174,-0.08305787033455667,-0.07334356902371522,-0.15539709753097472,-0.12237245545369815,-0.1345498784626115,-0.1333367061602686,-0.043951742607736724,-0.03440418738714706,0.06254167179182263,0.01964440279458248,0.040452832431846705,-0.011360127376970768,0.03258825827598435,-0.0959202757598065,-0.23858330188258822,-0.20435201989656754,-0.3844205616056882,-0.42920326885326165,-0.5405235000430476,-0.8429383264583034,-0.8248526493374184,-0.7721716815392804,-0.48411078236067695,-0.10858902084916544,0.1353557173750171,-0.1448551974886184,0.11021812954373597,-0.05329005129344582,0.06656256745535084,-0.1914737230915626,-0.11192327862701448,-0.14458714488978583,-0.12697484172404896,0.01611162801605102,-0.05809694668026945,-0.015261155616403796,0.0013695098511653247,0.03078110172912816,-0.02883076916522309,0.038008679837837143,-0.0557838411421517,-0.0886564503975838,-0.23085072771132717,-0.48438879738665663,-0.5342160033421349,-0.6405381109167871,-0.710971836009495,-0.7718914571615717,-0.5687540617808096,-0.5635390288714945,-0.3628109144630895,-0.12195507733767588,0.11913619093164626,-0.02521505590393012,0.14524511056468836,0.35876109269938306,0.08493757362339938,-0.20916658593367357,-0.33194928568434817,-0.2913727351209389,-0.17065572965224354,-0.057924528919165774,-0.03251871000847144,-0.03097570370492636,-0.0070689816100174205,-0.01895795306130347,-0.0064432034183639865,-0.016086884752917696,-0.08801796480655785,-0.18319554158397525,-0.30687609978027175,-0.39634831329558334,-0.42733338723406716,-0.5172636561049396,-0.5584678441644961,-0.5631713850711514,-0.43158914326222003,-0.2098908933045498,-0.06545228968287917,0.09406014955830558,0.14444777126794184,-0.056507164742854214,0.19990316502351888,0.5282000795848752,0.2386792223860595,-0.11148763758015245,-0.14001930154860678,-0.21395133143087433,-0.170411001427826,-0.13695273445196013,-0.012820002377004843,0.023576265280485842,0.018153054337784795,-0.03734466281290453,-0.06448461537079325,-0.0035241384565432676,-0.07823586208837659,-0.1664956173111481,-0.21379196409510862,-0.37971120453834684,-0.38162755322679925,-0.24723323196159527,-0.34173680323017464,-0.21006883698430928,-0.019941998973498905,-0.01901341981524019,-0.07667296874488783,0.2517507098013667,-0.042425886750604415,-0.16460710959638455,-0.09941846525135076,0.07273540226982182,-0.03119273160240472,-0.16931129962993963,-0.10944069529024456,-0.27103165912138466,-0.19569888053058168,-0.06041139576100139,0.024359940927165074,0.0014613366714290275,-0.04306138218331416,-0.005551510162703413,-0.0014558679449818326,-0.07616956844481826,-0.06800644883080788,-0.1563095902620982,-0.23434547062284602,-0.3147540443245507,-0.30392687105772087,-0.45488145433295263,-0.4481485776441346,-0.07106404249367725,-0.10272840712338144,0.1633155067344871,-0.15794396469827626,0.17691967246325305,-0.03163630451633951,-0.5215014610138752,-0.20400873046512816,-0.41348172759368124,-0.03504871437061822,-0.22230268731358763,-0.2893953879805504,-0.21441426039430686,-0.10774129743461286,-0.06010821137145002,0.004553841743623033,-0.006860654713183793,-0.037673837353793385,-4.9801316005278016e-05,-0.01308334701524708,-0.0971769598929502,-0.08123672525171435,-0.09566018442790453,-0.2170341664834651,-0.45261597536903675,-0.5191595793935057,-0.40181916180446847,-0.30736329874792023,0.1324811067884777,0.032454612927434213,-0.028558172775112564,-0.11153892601196437,0.11086429932304066,-0.181465869749715,-0.2809339600647254,-0.20111550634376527,-0.16872615281016545,0.009133643788668933,-0.10689977809192648,-0.2547373111723439,-0.14161508043741025,-0.07278555986573818,-0.03507057528907351,-0.07471006950200466,-0.009921437261902415,-0.011792650585167264,-0.061326918424582176,-0.06678527705388679,-0.045180299434030846,-0.07621328184194949,-0.02760970139869294,-0.16269484378356158,-0.3062401576191589,-0.2925692994254249,-0.20200279809900168,-0.07318127879288282,0.04670587605628818,-0.06661254890201988,-0.3351481720064148,0.10114085164365953,-0.13451984144831142,-0.05990205401479096,-0.24855555244860808,-0.10909922820643946,-0.22329423580959618,-0.12190704200357604,-0.1492066935974202,-0.14227171115087586,-0.10946327247168303,-0.06442789985915773,-0.02642363519619095,0.029728918784052743,-0.047726958040153165,-0.035565253191348525,-0.0750913285153682,-0.06214218190312922,-0.081861966460724,-0.0462230890349499,0.0336205977328234,-0.12651275373561627,0.005891359595099888,0.11735953055207177,-0.13999804371488445,0.16386868687610334,-0.13513579663756267,-0.293534082288599,-0.3687158867393202,-0.0505498180565529,-0.10549831793254058,0.04524545461697692,-0.3215239705227744,-0.22053943113375019,-0.20043854380388332,-0.13520290226350845,-0.20825655962482614,-0.043774884394639176,0.030711348410628888,-0.0267064802389342,-0.018954602352469645,-0.031781874272253374,-0.04742532544796861,0.01713564705842482,0.07592738800839448,-0.006617612576354223,-0.011821169159860312,0.008296905530279623,0.06898188366795543,0.0784408256072262,0.11108013902912166,0.15198560821438545,0.179748709837416,0.1913011830287705,0.07532101402942405,-0.030787971548119963,-0.15769103133780718,-0.1263842351299008,-0.06840058073206892,0.2002818513779785,-0.4987692203038871,-0.2548426071457722,-0.17521977071880143,-0.06786348348200226,-0.15006296239539063,-0.08213107524577822,-0.05419742975372384,-0.03708050451898803,-0.04568658744990589,-0.04472144655013574,0.023440645554685908,-0.01958905991955651,-0.023446426935345654,-0.013236052927398406,0.04002098647456626,0.006848439082958532,0.02737833168923829,-0.15178499352938327,-0.05513087720363416,0.11982234484077056,0.22812649080173641,0.2516580344123754,-0.18262060224503562,-0.06958660627287429,0.07136067421978583,-0.21415731868972634,0.18055767718822122,0.26546864526180763,0.1253247045697949,0.12976969897197582,0.22629909028390457,0.24277899622391788,0.017769641406448697,0.09395871550166884,-0.013636541405753162,-0.06582222854044452,0.007307105886860586,-0.01249181424062066,0.03310058678132314,-0.03958692596050282,0.07790662558896545,-0.03831525497636651,0.014457302780891976,-0.021422250065759874,-0.0064956626009104,-0.014336762387046282,-0.0218302223081524,-0.0700832930572303,0.01857568357082421,-0.09506212008345773,-0.2710850647288562,-0.22607181657244274,-0.14111524852382865,-0.07140391987485159,-0.034856171519955466,0.09552700488143456,0.12198291838013856,0.13682584538756873,0.25391141088087477,0.24634310824289754,0.07231837259289549,0.019834686736665056,-0.04624542146213385,-0.04498027685520656,0.06179102758549824,0.005789079862095372,-0.026442358256448122,0.047952077752211886,-0.0013143976848917942,-0.03907659706693265,0.0700643621030085,0.005395676024162242,-0.02041738584716675,-0.0221184980242184,-0.04974497089678107,-0.018480158713874165,-0.008636271918512281,-0.06069637695197606,-0.02525094740030106,-0.0031293914550581787,-0.02807063059973929,-0.0995478293398134,-0.0022157871451335626,-0.054340247373563626,-0.05412104242519359,-0.00953317670774568,0.04120493126518162,-0.010679751743263022,-0.022402520119215338,-0.02655197798464065,-0.005802309094851417,0.059942153098741895,0.011267497062684977,-0.0013545669270764577,-0.0021821894597412453,-0.06116592453606502
